Language model created by QuickLM on Tue Feb 21 10:33:45 EST 2023
Copyright (c) 1996-2010 Carnegie Mellon University and Alexander I. Rudnicky

The model is in standard ARPA format, designed by Doug Paul while he was at MITRE.

The code that was used to produce this language model is available in Open Source.
Please visit http://www.speech.cs.cmu.edu/tools/ for more information

The (fixed) discount mass is 0.5. The backoffs are computed using the ratio method.
This model based on a corpus of 19 sentences and 35 words

\data\
ngram 1=35
ngram 2=54
ngram 3=53

\1-grams:
-1.1051 </s> -0.3010
-1.1051 <s> -0.2636
-1.5387 A -0.2883
-2.3838 BACKWARD -0.2655
-2.3838 BIN -0.2655
-2.3838 BISCUIT -0.2655
-2.0828 BRING -0.2920
-1.4296 CAN -0.2497
-2.0828 COOKIE -0.2655
-2.3838 DRINK -0.2655
-2.3838 FORWARD -0.2655
-2.3838 FULL -0.2974
-1.9067 GET -0.2920
-2.0828 GO -0.2974
-2.3838 HALF -0.2974
-2.3838 HALT -0.2655
-1.9067 I -0.2956
-1.9067 IN -0.2938
-2.3838 LEFT -0.2655
-1.6848 ME -0.2883
-1.9067 MEAN -0.2808
-2.0828 MOVE -0.2974
-2.0828 PAPER -0.2956
-2.3838 POP -0.2655
-2.3838 RIGHT -0.2655
-2.0828 SODA -0.2655
-2.3838 SOFT -0.2992
-2.0828 SPEED -0.2655
-2.3838 STOP -0.2655
-1.7818 THE -0.2938
-1.9067 THIS -0.2920
-1.9067 THROW -0.2956
-1.9067 TRASH -0.2476
-2.0828 TURN -0.2974
-1.4807 YOU -0.2864

\2-grams:
-0.6767 <s> CAN -0.0458
-1.2788 <s> GO 0.0000
-1.5798 <s> HALT 0.0000
-1.1027 <s> I 0.0000
-1.2788 <s> MOVE 0.0000
-1.5798 <s> STOP 0.0000
-1.2788 <s> TURN 0.0000
-1.1461 A BISCUIT 0.0000
-0.8451 A COOKIE 0.0000
-1.1461 A POP 0.0000
-0.8451 A SODA 0.0000
-1.1461 A SOFT 0.0000
-0.3010 BACKWARD </s> -0.3010
-0.3010 BIN </s> -0.3010
-0.3010 BISCUIT </s> -0.3010
-0.3010 BRING ME 0.0000
-1.2553 CAN </s> -0.3010
-0.3522 CAN YOU 0.0000
-0.3010 COOKIE </s> -0.3010
-0.3010 DRINK </s> -0.3010
-0.3010 FORWARD </s> -0.3010
-0.3010 FULL SPEED 0.0000
-0.3010 GET ME 0.0000
-0.6021 GO FULL 0.0000
-0.6021 GO HALF 0.0000
-0.3010 HALF SPEED 0.0000
-0.3010 HALT </s> -0.3010
-0.3010 I MEAN 0.0000
-0.3010 IN THE 0.0000
-0.3010 LEFT </s> -0.3010
-0.3010 ME A 0.0000
-0.4771 MEAN A -0.1549
-0.7782 MEAN THE -0.0969
-0.6021 MOVE BACKWARD 0.0000
-0.6021 MOVE FORWARD 0.0000
-0.3010 PAPER IN 0.0000
-0.3010 POP </s> -0.3010
-0.3010 RIGHT </s> -0.3010
-0.3010 SODA </s> -0.3010
-0.3010 SOFT DRINK 0.0000
-0.3010 SPEED </s> -0.3010
-0.3010 STOP </s> -0.3010
-0.9031 THE BIN 0.0000
-0.4260 THE TRASH 0.0000
-0.7782 THIS IN 0.0000
-0.4771 THIS PAPER 0.0000
-0.3010 THROW THIS 0.0000
-0.4771 TRASH </s> -0.3010
-0.7782 TRASH CAN -0.2762
-0.6021 TURN LEFT 0.0000
-0.6021 TURN RIGHT 0.0000
-0.9031 YOU BRING 0.0000
-0.7270 YOU GET 0.0000
-0.7270 YOU THROW 0.0000

\3-grams:
-0.3010 <s> CAN YOU
-0.6021 <s> GO FULL
-0.6021 <s> GO HALF
-0.3010 <s> HALT </s>
-0.3010 <s> I MEAN
-0.6021 <s> MOVE BACKWARD
-0.6021 <s> MOVE FORWARD
-0.3010 <s> STOP </s>
-0.6021 <s> TURN LEFT
-0.6021 <s> TURN RIGHT
-0.3010 A BISCUIT </s>
-0.3010 A COOKIE </s>
-0.3010 A POP </s>
-0.3010 A SODA </s>
-0.3010 A SOFT DRINK
-0.3010 BRING ME A
-0.9031 CAN YOU BRING
-0.7270 CAN YOU GET
-0.7270 CAN YOU THROW
-0.3010 FULL SPEED </s>
-0.3010 GET ME A
-0.3010 GO FULL SPEED
-0.3010 GO HALF SPEED
-0.3010 HALF SPEED </s>
-0.4771 I MEAN A
-0.7782 I MEAN THE
-0.7782 IN THE BIN
-0.4771 IN THE TRASH
-1.0000 ME A BISCUIT
-1.0000 ME A COOKIE
-1.0000 ME A POP
-1.0000 ME A SODA
-1.0000 ME A SOFT
-0.6021 MEAN A COOKIE
-0.6021 MEAN A SODA
-0.3010 MEAN THE TRASH
-0.3010 MOVE BACKWARD </s>
-0.3010 MOVE FORWARD </s>
-0.3010 PAPER IN THE
-0.3010 SOFT DRINK </s>
-0.3010 THE BIN </s>
-0.4771 THE TRASH </s>
-0.7782 THE TRASH CAN
-0.3010 THIS IN THE
-0.3010 THIS PAPER IN
-0.7782 THROW THIS IN
-0.4771 THROW THIS PAPER
-0.3010 TRASH CAN </s>
-0.3010 TURN LEFT </s>
-0.3010 TURN RIGHT </s>
-0.3010 YOU BRING ME
-0.3010 YOU GET ME
-0.3010 YOU THROW THIS

\end\
