Language model created by QuickLM on Tue Feb 21 09:41:15 EST 2023
Copyright (c) 1996-2010 Carnegie Mellon University and Alexander I. Rudnicky

The model is in standard ARPA format, designed by Doug Paul while he was at MITRE.

The code that was used to produce this language model is available in Open Source.
Please visit http://www.speech.cs.cmu.edu/tools/ for more information

The (fixed) discount mass is 0.5. The backoffs are computed using the ratio method.
This model based on a corpus of 19 sentences and 35 words

\data\
ngram 1=35
ngram 2=56
ngram 3=53

\1-grams:
-1.0867 </s> -0.3010
-1.0867 <s> -0.2619
-1.8884 A -0.2916
-2.3655 BACKWARD -0.2639
-2.3655 BIN -0.2639
-2.3655 BISCUIT -0.2639
-2.0645 BRING -0.2916
-1.4112 CAN -0.2473
-2.0645 COOKIE -0.2639
-2.3655 DRINK -0.2639
-2.3655 FORWARD -0.2639
-2.3655 FULL -0.2973
-1.8884 GET -0.2916
-2.0645 GO -0.2973
-2.3655 HALF -0.2973
-2.3655 HALT -0.2639
-1.8884 I -0.2954
-1.8884 IN -0.2954
-2.3655 LEFT -0.2639
-1.6665 ME -0.2877
-1.8884 MEAN -0.2858
-2.0645 MOVE -0.2973
-2.0645 PAPER -0.2954
-2.3655 POP -0.2639
-2.3655 RIGHT -0.2639
-2.0645 SODA -0.2639
-2.3655 SOFT -0.2992
-2.0645 SPEED -0.2639
-2.3655 STOP -0.2639
-1.8884 THE -0.2935
-1.8884 THIS -0.2916
-1.8884 THROW -0.2954
-1.8884 TRASH -0.2452
-2.0645 TURN -0.2973
-1.4624 YOU -0.2858

\2-grams:
-0.6767 <s> CAN -0.0458
-1.2788 <s> GO 0.0000
-1.5798 <s> HALT 0.0000
-1.1027 <s> I 0.0000
-1.2788 <s> MOVE 0.0000
-1.5798 <s> STOP 0.0000
-1.2788 <s> TURN 0.0000
-0.7782 A BISCUIT 0.0000
-0.7782 A COOKIE 0.0000
-0.7782 A SODA 0.0000
-0.3010 BACKWARD </s> -0.3010
-0.3010 BIN </s> -0.3010
-0.3010 BISCUIT </s> -0.3010
-0.3010 BRING ME -0.2041
-1.2553 CAN </s> -0.3010
-0.3522 CAN YOU 0.0000
-0.3010 COOKIE </s> -0.3010
-0.3010 DRINK </s> -0.3010
-0.3010 FORWARD </s> -0.3010
-0.3010 FULL SPEED 0.0000
-0.3010 GET ME -0.1461
-0.6021 GO FULL 0.0000
-0.6021 GO HALF 0.0000
-0.3010 HALF SPEED 0.0000
-0.3010 HALT </s> -0.3010
-0.3010 I MEAN 0.0000
-0.3010 IN THE 0.0000
-0.3010 LEFT </s> -0.3010
-0.6990 ME A -0.1249
-1.0000 ME POP 0.0000
-1.0000 ME SODA 0.0000
-1.0000 ME SOFT 0.0000
-0.7782 MEAN A -0.2218
-0.7782 MEAN COOKIE 0.0000
-0.7782 MEAN TRASH -0.2218
-0.6021 MOVE BACKWARD 0.0000
-0.6021 MOVE FORWARD 0.0000
-0.3010 PAPER IN 0.0000
-0.3010 POP </s> -0.3010
-0.3010 RIGHT </s> -0.3010
-0.3010 SODA </s> -0.3010
-0.3010 SOFT DRINK 0.0000
-0.3010 SPEED </s> -0.3010
-0.3010 STOP </s> -0.3010
-0.7782 THE BIN 0.0000
-0.4771 THE TRASH -0.1249
-0.7782 THIS IN 0.0000
-0.4771 THIS PAPER 0.0000
-0.3010 THROW THIS 0.0000
-0.4771 TRASH </s> -0.3010
-0.7782 TRASH CAN -0.2762
-0.6021 TURN LEFT 0.0000
-0.6021 TURN RIGHT 0.0000
-0.9031 YOU BRING 0.0000
-0.7270 YOU GET 0.0000
-0.7270 YOU THROW 0.0000

\3-grams:
-0.3010 <s> CAN YOU
-0.6021 <s> GO FULL
-0.6021 <s> GO HALF
-0.3010 <s> HALT </s>
-0.3010 <s> I MEAN
-0.6021 <s> MOVE BACKWARD
-0.6021 <s> MOVE FORWARD
-0.3010 <s> STOP </s>
-0.6021 <s> TURN LEFT
-0.6021 <s> TURN RIGHT
-0.3010 A BISCUIT </s>
-0.3010 A COOKIE </s>
-0.3010 A SODA </s>
-0.3010 BRING ME A
-0.9031 CAN YOU BRING
-0.7270 CAN YOU GET
-0.7270 CAN YOU THROW
-0.3010 FULL SPEED </s>
-0.7782 GET ME POP
-0.7782 GET ME SODA
-0.7782 GET ME SOFT
-0.3010 GO FULL SPEED
-0.3010 GO HALF SPEED
-0.3010 HALF SPEED </s>
-0.7782 I MEAN A
-0.7782 I MEAN COOKIE
-0.7782 I MEAN TRASH
-0.7782 IN THE BIN
-0.4771 IN THE TRASH
-0.6021 ME A BISCUIT
-0.6021 ME A COOKIE
-0.3010 ME POP </s>
-0.3010 ME SODA </s>
-0.3010 ME SOFT DRINK
-0.3010 MEAN A SODA
-0.3010 MEAN COOKIE </s>
-0.3010 MEAN TRASH CAN
-0.3010 MOVE BACKWARD </s>
-0.3010 MOVE FORWARD </s>
-0.3010 PAPER IN THE
-0.3010 SOFT DRINK </s>
-0.3010 THE BIN </s>
-0.3010 THE TRASH </s>
-0.3010 THIS IN THE
-0.3010 THIS PAPER IN
-0.7782 THROW THIS IN
-0.4771 THROW THIS PAPER
-0.3010 TRASH CAN </s>
-0.3010 TURN LEFT </s>
-0.3010 TURN RIGHT </s>
-0.3010 YOU BRING ME
-0.3010 YOU GET ME
-0.3010 YOU THROW THIS

\end\
