Language model created by QuickLM on Tue Feb  7 00:04:25 EST 2023
Copyright (c) 1996-2010 Carnegie Mellon University and Alexander I. Rudnicky

The model is in standard ARPA format, designed by Doug Paul while he was at MITRE.

The code that was used to produce this language model is available in Open Source.
Please visit http://www.speech.cs.cmu.edu/tools/ for more information

The (fixed) discount mass is 0.5. The backoffs are computed using the ratio method.
This model based on a corpus of 19 sentences and 31 words

\data\
ngram 1=31
ngram 2=50
ngram 3=49

\1-grams:
-1.0435 </s> -0.3010
-1.0435 <s> -0.2598
-2.0212 A -0.2969
-2.3222 AROUND -0.2598
-2.3222 AWAY -0.2598
-2.3222 BACK -0.2598
-2.0212 BACKWARD -0.2884
-2.3222 BIN -0.2598
-2.3222 BISCUIT -0.2598
-2.0212 BRING -0.2969
-2.3222 CAN -0.2598
-2.3222 COOKIE -0.2598
-2.3222 COULD -0.2990
-1.8451 FORWARD -0.2460
-1.8451 FULL -0.2884
-1.8451 HALF -0.2884
-1.8451 IN -0.2884
-2.3222 LEFT -0.2598
-2.0212 ME -0.2969
-1.4191 MOVE -0.2755
-1.7202 PAPER -0.2927
-2.3222 PLEASE -0.2598
-2.3222 RIGHT -0.2598
-1.5441 SPEED -0.2598
-2.3222 STOP -0.2598
-1.5441 THE -0.2863
-2.3222 THIS -0.2927
-1.7202 THROW -0.2863
-2.0212 TRASH -0.2576
-1.8451 TURN -0.2948
-2.3222 YOU -0.2990

\2-grams:
-1.2788 <s> BRING 0.0000
-1.5798 <s> COULD 0.0000
-0.6767 <s> MOVE 0.0000
-1.5798 <s> STOP 0.0000
-0.9777 <s> THROW 0.0000
-1.1027 <s> TURN 0.0000
-0.6021 A BISCUIT 0.0000
-0.6021 A COOKIE 0.0000
-0.3010 AROUND </s> -0.3010
-0.3010 AWAY </s> -0.3010
-0.3010 BACK </s> -0.3010
-0.6021 BACKWARD FULL 0.0000
-0.6021 BACKWARD HALF 0.0000
-0.3010 BIN </s> -0.3010
-0.3010 BISCUIT </s> -0.3010
-0.3010 BRING ME 0.0000
-0.3010 CAN </s> -0.3010
-0.3010 COOKIE </s> -0.3010
-0.3010 COULD YOU 0.0000
-0.7782 FORWARD </s> -0.3010
-0.7782 FORWARD FULL 0.0000
-0.7782 FORWARD HALF 0.0000
-0.3010 FULL SPEED 0.0000
-0.3010 HALF SPEED 0.0000
-0.3010 IN THE -0.1761
-0.3010 LEFT </s> -0.3010
-0.3010 ME A 0.0000
-1.2041 MOVE BACK 0.0000
-0.9031 MOVE BACKWARD 0.0000
-0.7270 MOVE FORWARD 0.0000
-1.2041 MOVE FULL 0.0000
-1.2041 MOVE HALF 0.0000
-0.9031 PAPER AWAY 0.0000
-0.4260 PAPER IN 0.0000
-0.3010 PLEASE </s> -0.3010
-0.3010 RIGHT </s> -0.3010
-0.3010 SPEED </s> -0.3010
-0.3010 STOP </s> -0.3010
-1.0792 THE BIN 0.0000
-0.6021 THE PAPER -0.0969
-0.7782 THE TRASH 0.0000
-0.3010 THIS PAPER -0.2430
-0.4260 THROW THE -0.1761
-0.9031 THROW THIS 0.0000
-0.6021 TRASH </s> -0.3010
-0.6021 TRASH CAN 0.0000
-0.7782 TURN AROUND 0.0000
-0.7782 TURN LEFT 0.0000
-0.7782 TURN RIGHT 0.0000
-0.3010 YOU PLEASE 0.0000

\3-grams:
-0.3010 <s> BRING ME
-0.3010 <s> COULD YOU
-1.2041 <s> MOVE BACK
-0.9031 <s> MOVE BACKWARD
-0.7270 <s> MOVE FORWARD
-1.2041 <s> MOVE FULL
-1.2041 <s> MOVE HALF
-0.3010 <s> STOP </s>
-0.4260 <s> THROW THE
-0.9031 <s> THROW THIS
-0.7782 <s> TURN AROUND
-0.7782 <s> TURN LEFT
-0.7782 <s> TURN RIGHT
-0.3010 A BISCUIT </s>
-0.3010 A COOKIE </s>
-0.3010 BACKWARD FULL SPEED
-0.3010 BACKWARD HALF SPEED
-0.3010 BRING ME A
-0.3010 COULD YOU PLEASE
-0.3010 FORWARD FULL SPEED
-0.3010 FORWARD HALF SPEED
-0.3010 FULL SPEED </s>
-0.3010 HALF SPEED </s>
-0.7782 IN THE BIN
-0.4771 IN THE TRASH
-0.6021 ME A BISCUIT
-0.6021 ME A COOKIE
-0.3010 MOVE BACK </s>
-0.6021 MOVE BACKWARD FULL
-0.6021 MOVE BACKWARD HALF
-0.7782 MOVE FORWARD </s>
-0.7782 MOVE FORWARD FULL
-0.7782 MOVE FORWARD HALF
-0.3010 MOVE FULL SPEED
-0.3010 MOVE HALF SPEED
-0.3010 PAPER AWAY </s>
-0.3010 PAPER IN THE
-0.3010 THE BIN </s>
-0.3010 THE PAPER IN
-0.6021 THE TRASH </s>
-0.6021 THE TRASH CAN
-0.3010 THIS PAPER AWAY
-0.3010 THROW THE PAPER
-0.3010 THROW THIS PAPER
-0.3010 TRASH CAN </s>
-0.3010 TURN AROUND </s>
-0.3010 TURN LEFT </s>
-0.3010 TURN RIGHT </s>
-0.3010 YOU PLEASE </s>

\end\
